digraph Tree {
node [shape=box, style="filled, rounded", color="black", fontname=helvetica] ;
edge [fontname=helvetica] ;
0 [label=<salary &le; 833397.1077<br/>gini = 0.2188<br/>samples = 128<br/>value = [112, 16]<br/>class = n>, fillcolor="#e58139db"] ;
1 [label=<salary_log &le; 7.3895<br/>gini = 0.2098<br/>samples = 126<br/>value = [111, 15]<br/>class = n>, fillcolor="#e58139dd"] ;
0 -> 1 [labeldistance=2.5, labelangle=45, headlabel="True"] ;
2 [label=<exercised_stock_options &le; 9615768.7501<br/>gini = 0.0425<br/>samples = 46<br/>value = [45, 1]<br/>class = n>, fillcolor="#e58139f9"] ;
1 -> 2 ;
3 [label=<gini = 0.0<br/>samples = 45<br/>value = [45, 0]<br/>class = n>, fillcolor="#e58139ff"] ;
2 -> 3 ;
4 [label=<gini = 0.0<br/>samples = 1<br/>value = [0, 1]<br/>class = o>, fillcolor="#399de5ff"] ;
2 -> 4 ;
5 [label=<salary_log &le; 12.5114<br/>gini = 0.2887<br/>samples = 80<br/>value = [66, 14]<br/>class = n>, fillcolor="#e58139c9"] ;
1 -> 5 ;
6 [label=<other &le; 642628.1979<br/>gini = 0.2149<br/>samples = 49<br/>value = [43, 6]<br/>class = n>, fillcolor="#e58139db"] ;
5 -> 6 ;
7 [label=<from_poi_to_this_person &le; 204.9347<br/>gini = 0.1653<br/>samples = 44<br/>value = [40, 4]<br/>class = n>, fillcolor="#e58139e6"] ;
6 -> 7 ;
8 [label=<total_stock_value &le; 1870633.5752<br/>gini = 0.1327<br/>samples = 42<br/>value = [39, 3]<br/>class = n>, fillcolor="#e58139eb"] ;
7 -> 8 ;
9 [label=<shared_receipt_with_poi &le; 813.5919<br/>gini = 0.0644<br/>samples = 30<br/>value = [29, 1]<br/>class = n>, fillcolor="#e58139f6"] ;
8 -> 9 ;
10 [label=<gini = 0.0<br/>samples = 21<br/>value = [21, 0]<br/>class = n>, fillcolor="#e58139ff"] ;
9 -> 10 ;
11 [label=<gini = 0.1975<br/>samples = 9<br/>value = [8, 1]<br/>class = n>, fillcolor="#e58139df"] ;
9 -> 11 ;
12 [label=<shared_receipt_with_poi &le; 347.242<br/>gini = 0.2778<br/>samples = 12<br/>value = [10, 2]<br/>class = n>, fillcolor="#e58139cc"] ;
8 -> 12 ;
13 [label=<gini = 0.18<br/>samples = 10<br/>value = [9, 1]<br/>class = n>, fillcolor="#e58139e3"] ;
12 -> 13 ;
14 [label=<gini = 0.5<br/>samples = 2<br/>value = [1, 1]<br/>class = n>, fillcolor="#e5813900"] ;
12 -> 14 ;
15 [label=<salary &le; 221021.1801<br/>gini = 0.5<br/>samples = 2<br/>value = [1, 1]<br/>class = n>, fillcolor="#e5813900"] ;
7 -> 15 ;
16 [label=<gini = 0.0<br/>samples = 1<br/>value = [0, 1]<br/>class = o>, fillcolor="#399de5ff"] ;
15 -> 16 ;
17 [label=<gini = 0.0<br/>samples = 1<br/>value = [1, 0]<br/>class = n>, fillcolor="#e58139ff"] ;
15 -> 17 ;
18 [label=<from_this_person_to_poi &le; 13.0051<br/>gini = 0.48<br/>samples = 5<br/>value = [3, 2]<br/>class = n>, fillcolor="#e5813955"] ;
6 -> 18 ;
19 [label=<other &le; 1826164.9144<br/>gini = 0.375<br/>samples = 4<br/>value = [3, 1]<br/>class = n>, fillcolor="#e58139aa"] ;
18 -> 19 ;
20 [label=<other_log &le; 13.9889<br/>gini = 0.5<br/>samples = 2<br/>value = [1, 1]<br/>class = n>, fillcolor="#e5813900"] ;
19 -> 20 ;
21 [label=<gini = 0.0<br/>samples = 1<br/>value = [0, 1]<br/>class = o>, fillcolor="#399de5ff"] ;
20 -> 21 ;
22 [label=<gini = 0.0<br/>samples = 1<br/>value = [1, 0]<br/>class = n>, fillcolor="#e58139ff"] ;
20 -> 22 ;
23 [label=<gini = 0.0<br/>samples = 2<br/>value = [2, 0]<br/>class = n>, fillcolor="#e58139ff"] ;
19 -> 23 ;
24 [label=<gini = 0.0<br/>samples = 1<br/>value = [0, 1]<br/>class = o>, fillcolor="#399de5ff"] ;
18 -> 24 ;
25 [label=<exercised_stock_options &le; 15539994.0743<br/>gini = 0.3829<br/>samples = 31<br/>value = [23, 8]<br/>class = n>, fillcolor="#e58139a6"] ;
5 -> 25 ;
26 [label=<other &le; 52346.6044<br/>gini = 0.3578<br/>samples = 30<br/>value = [23, 7]<br/>class = n>, fillcolor="#e58139b1"] ;
25 -> 26 ;
27 [label=<total_payments_log &le; 15.0904<br/>gini = 0.2188<br/>samples = 16<br/>value = [14, 2]<br/>class = n>, fillcolor="#e58139db"] ;
26 -> 27 ;
28 [label=<bonus_log &le; 14.1101<br/>gini = 0.1327<br/>samples = 14<br/>value = [13, 1]<br/>class = n>, fillcolor="#e58139eb"] ;
27 -> 28 ;
29 [label=<gini = 0.0<br/>samples = 12<br/>value = [12, 0]<br/>class = n>, fillcolor="#e58139ff"] ;
28 -> 29 ;
30 [label=<gini = 0.5<br/>samples = 2<br/>value = [1, 1]<br/>class = n>, fillcolor="#e5813900"] ;
28 -> 30 ;
31 [label=<from_poi_to_this_person &le; 262.8051<br/>gini = 0.5<br/>samples = 2<br/>value = [1, 1]<br/>class = n>, fillcolor="#e5813900"] ;
27 -> 31 ;
32 [label=<gini = 0.0<br/>samples = 1<br/>value = [0, 1]<br/>class = o>, fillcolor="#399de5ff"] ;
31 -> 32 ;
33 [label=<gini = 0.0<br/>samples = 1<br/>value = [1, 0]<br/>class = n>, fillcolor="#e58139ff"] ;
31 -> 33 ;
34 [label=<deferred_income &le; -1276047.979<br/>gini = 0.4592<br/>samples = 14<br/>value = [9, 5]<br/>class = n>, fillcolor="#e5813971"] ;
26 -> 34 ;
35 [label=<gini = 0.0<br/>samples = 1<br/>value = [0, 1]<br/>class = o>, fillcolor="#399de5ff"] ;
34 -> 35 ;
36 [label=<to_messages &le; 5251.1153<br/>gini = 0.426<br/>samples = 13<br/>value = [9, 4]<br/>class = n>, fillcolor="#e581398e"] ;
34 -> 36 ;
37 [label=<gini = 0.4628<br/>samples = 11<br/>value = [7, 4]<br/>class = n>, fillcolor="#e581396d"] ;
36 -> 37 ;
38 [label=<gini = 0.0<br/>samples = 2<br/>value = [2, 0]<br/>class = n>, fillcolor="#e58139ff"] ;
36 -> 38 ;
39 [label=<gini = 0.0<br/>samples = 1<br/>value = [0, 1]<br/>class = o>, fillcolor="#399de5ff"] ;
25 -> 39 ;
40 [label=<shared_receipt_with_poi &le; 2959.1776<br/>gini = 0.5<br/>samples = 2<br/>value = [1, 1]<br/>class = n>, fillcolor="#e5813900"] ;
0 -> 40 [labeldistance=2.5, labelangle=-45, headlabel="False"] ;
41 [label=<gini = 0.0<br/>samples = 1<br/>value = [0, 1]<br/>class = o>, fillcolor="#399de5ff"] ;
40 -> 41 ;
42 [label=<gini = 0.0<br/>samples = 1<br/>value = [1, 0]<br/>class = n>, fillcolor="#e58139ff"] ;
40 -> 42 ;
}