digraph Tree {
node [shape=box, style="filled, rounded", color="black", fontname=helvetica] ;
edge [fontname=helvetica] ;
0 [label=<total_payments &le; 0.4661<br/>gini = 0.2188<br/>samples = 128<br/>value = [112, 16]<br/>class = n>, fillcolor="#e58139db"] ;
1 [label=<to_messages &le; 0.9338<br/>gini = 0.0263<br/>samples = 75<br/>value = [74, 1]<br/>class = n>, fillcolor="#e58139fc"] ;
0 -> 1 [labeldistance=2.5, labelangle=45, headlabel="True"] ;
2 [label=<salary &le; 0.0124<br/>gini = 0.2778<br/>samples = 6<br/>value = [5, 1]<br/>class = n>, fillcolor="#e58139cc"] ;
1 -> 2 ;
3 [label=<gini = 0.0<br/>samples = 1<br/>value = [0, 1]<br/>class = o>, fillcolor="#399de5ff"] ;
2 -> 3 ;
4 [label=<gini = 0.0<br/>samples = 5<br/>value = [5, 0]<br/>class = n>, fillcolor="#e58139ff"] ;
2 -> 4 ;
5 [label=<gini = 0.0<br/>samples = 69<br/>value = [69, 0]<br/>class = n>, fillcolor="#e58139ff"] ;
1 -> 5 ;
6 [label=<to_messages &le; 0.619<br/>gini = 0.4058<br/>samples = 53<br/>value = [38, 15]<br/>class = n>, fillcolor="#e581399a"] ;
0 -> 6 [labeldistance=2.5, labelangle=-45, headlabel="False"] ;
7 [label=<total_payments &le; 0.8637<br/>gini = 0.48<br/>samples = 5<br/>value = [2, 3]<br/>class = o>, fillcolor="#399de555"] ;
6 -> 7 ;
8 [label=<gini = 0.0<br/>samples = 3<br/>value = [0, 3]<br/>class = o>, fillcolor="#399de5ff"] ;
7 -> 8 ;
9 [label=<gini = 0.0<br/>samples = 2<br/>value = [2, 0]<br/>class = n>, fillcolor="#e58139ff"] ;
7 -> 9 ;
10 [label=<exercised_stock_options &le; 0.7073<br/>gini = 0.375<br/>samples = 48<br/>value = [36, 12]<br/>class = n>, fillcolor="#e58139aa"] ;
6 -> 10 ;
11 [label=<gini = 0.0<br/>samples = 1<br/>value = [0, 1]<br/>class = o>, fillcolor="#399de5ff"] ;
10 -> 11 ;
12 [label=<salary &le; 0.5625<br/>gini = 0.3585<br/>samples = 47<br/>value = [36, 11]<br/>class = n>, fillcolor="#e58139b1"] ;
10 -> 12 ;
13 [label=<bonus &le; 0.5127<br/>gini = 0.3403<br/>samples = 46<br/>value = [36, 10]<br/>class = n>, fillcolor="#e58139b8"] ;
12 -> 13 ;
14 [label=<total_payments &le; 0.4702<br/>gini = 0.2778<br/>samples = 42<br/>value = [35, 7]<br/>class = n>, fillcolor="#e58139cc"] ;
13 -> 14 ;
15 [label=<gini = 0.0<br/>samples = 2<br/>value = [0, 2]<br/>class = o>, fillcolor="#399de5ff"] ;
14 -> 15 ;
16 [label=<deferral_payments &le; 0.0067<br/>gini = 0.2188<br/>samples = 40<br/>value = [35, 5]<br/>class = n>, fillcolor="#e58139db"] ;
14 -> 16 ;
17 [label=<gini = 0.426<br/>samples = 13<br/>value = [9, 4]<br/>class = n>, fillcolor="#e581398e"] ;
16 -> 17 ;
18 [label=<gini = 0.0713<br/>samples = 27<br/>value = [26, 1]<br/>class = n>, fillcolor="#e58139f5"] ;
16 -> 18 ;
19 [label=<deferral_payments &le; 0.1261<br/>gini = 0.375<br/>samples = 4<br/>value = [1, 3]<br/>class = o>, fillcolor="#399de5aa"] ;
13 -> 19 ;
20 [label=<gini = 0.0<br/>samples = 3<br/>value = [0, 3]<br/>class = o>, fillcolor="#399de5ff"] ;
19 -> 20 ;
21 [label=<gini = 0.0<br/>samples = 1<br/>value = [1, 0]<br/>class = n>, fillcolor="#e58139ff"] ;
19 -> 21 ;
22 [label=<gini = 0.0<br/>samples = 1<br/>value = [0, 1]<br/>class = o>, fillcolor="#399de5ff"] ;
12 -> 22 ;
}