digraph Tree {
node [shape=box, style="filled, rounded", color="black", fontname=helvetica] ;
edge [fontname=helvetica] ;
0 [label=<expenses_sqrt &le; 0.2611<br/>entropy = 0.5436<br/>samples = 128<br/>value = [112, 16]<br/>class = n>, fillcolor="#e58139db"] ;
1 [label=<entropy = 0.0<br/>samples = 61<br/>value = [61, 0]<br/>class = n>, fillcolor="#e58139ff"] ;
0 -> 1 [labeldistance=2.5, labelangle=45, headlabel="True"] ;
2 [label=<other_log &le; 0.4661<br/>entropy = 0.793<br/>samples = 67<br/>value = [51, 16]<br/>class = n>, fillcolor="#e58139af"] ;
0 -> 2 [labeldistance=2.5, labelangle=-45, headlabel="False"] ;
3 [label=<from_poi_to_this_person &le; 0.3665<br/>entropy = 0.2352<br/>samples = 26<br/>value = [25, 1]<br/>class = n>, fillcolor="#e58139f5"] ;
2 -> 3 ;
4 [label=<entropy = 0.0<br/>samples = 24<br/>value = [24, 0]<br/>class = n>, fillcolor="#e58139ff"] ;
3 -> 4 ;
5 [label=<from_this_person_to_poi &le; 0.358<br/>entropy = 1.0<br/>samples = 2<br/>value = [1, 1]<br/>class = n>, fillcolor="#e5813900"] ;
3 -> 5 ;
6 [label=<entropy = 0.0<br/>samples = 1<br/>value = [0, 1]<br/>class = o>, fillcolor="#399de5ff"] ;
5 -> 6 ;
7 [label=<entropy = 0.0<br/>samples = 1<br/>value = [1, 0]<br/>class = n>, fillcolor="#e58139ff"] ;
5 -> 7 ;
8 [label=<other &le; 0.0379<br/>entropy = 0.9474<br/>samples = 41<br/>value = [26, 15]<br/>class = n>, fillcolor="#e581396c"] ;
2 -> 8 ;
9 [label=<other_log &le; 0.7125<br/>entropy = 0.994<br/>samples = 22<br/>value = [10, 12]<br/>class = o>, fillcolor="#399de52a"] ;
8 -> 9 ;
10 [label=<total_stock_value &le; 0.0489<br/>entropy = 0.9183<br/>samples = 15<br/>value = [10, 5]<br/>class = n>, fillcolor="#e581397f"] ;
9 -> 10 ;
11 [label=<other &le; 0.0002<br/>entropy = 0.5033<br/>samples = 9<br/>value = [8, 1]<br/>class = n>, fillcolor="#e58139df"] ;
10 -> 11 ;
12 [label=<entropy = 0.0<br/>samples = 1<br/>value = [0, 1]<br/>class = o>, fillcolor="#399de5ff"] ;
11 -> 12 ;
13 [label=<entropy = 0.0<br/>samples = 8<br/>value = [8, 0]<br/>class = n>, fillcolor="#e58139ff"] ;
11 -> 13 ;
14 [label=<deferred_income &le; 0.9286<br/>entropy = 0.9183<br/>samples = 6<br/>value = [2, 4]<br/>class = o>, fillcolor="#399de57f"] ;
10 -> 14 ;
15 [label=<entropy = 0.0<br/>samples = 2<br/>value = [2, 0]<br/>class = n>, fillcolor="#e58139ff"] ;
14 -> 15 ;
16 [label=<entropy = 0.0<br/>samples = 4<br/>value = [0, 4]<br/>class = o>, fillcolor="#399de5ff"] ;
14 -> 16 ;
17 [label=<entropy = 0.0<br/>samples = 7<br/>value = [0, 7]<br/>class = o>, fillcolor="#399de5ff"] ;
9 -> 17 ;
18 [label=<total_payments &le; 0.0952<br/>entropy = 0.6292<br/>samples = 19<br/>value = [16, 3]<br/>class = n>, fillcolor="#e58139cf"] ;
8 -> 18 ;
19 [label=<entropy = 0.0<br/>samples = 8<br/>value = [8, 0]<br/>class = n>, fillcolor="#e58139ff"] ;
18 -> 19 ;
20 [label=<exercised_stock_options &le; 0.0153<br/>entropy = 0.8454<br/>samples = 11<br/>value = [8, 3]<br/>class = n>, fillcolor="#e581399f"] ;
18 -> 20 ;
21 [label=<entropy = 0.0<br/>samples = 2<br/>value = [0, 2]<br/>class = o>, fillcolor="#399de5ff"] ;
20 -> 21 ;
22 [label=<expenses &le; 0.1115<br/>entropy = 0.5033<br/>samples = 9<br/>value = [8, 1]<br/>class = n>, fillcolor="#e58139df"] ;
20 -> 22 ;
23 [label=<entropy = 0.0<br/>samples = 1<br/>value = [0, 1]<br/>class = o>, fillcolor="#399de5ff"] ;
22 -> 23 ;
24 [label=<entropy = 0.0<br/>samples = 8<br/>value = [8, 0]<br/>class = n>, fillcolor="#e58139ff"] ;
22 -> 24 ;
}