digraph Tree {
node [shape=box, style="filled, rounded", color="black", fontname=helvetica] ;
edge [fontname=helvetica] ;
0 [label=<bonus &le; 0.1755<br/>gini = 0.2188<br/>samples = 128<br/>value = [112, 16]<br/>class = n>, fillcolor="#e58139db"] ;
1 [label=<bonus &le; 0.1261<br/>gini = 0.1744<br/>samples = 114<br/>value = [103, 11]<br/>class = n>, fillcolor="#e58139e4"] ;
0 -> 1 [labeldistance=2.5, labelangle=45, headlabel="True"] ;
2 [label=<salary &le; 0.0682<br/>gini = 0.1815<br/>samples = 109<br/>value = [98, 11]<br/>class = n>, fillcolor="#e58139e2"] ;
1 -> 2 ;
3 [label=<gini = 0.0<br/>samples = 56<br/>value = [56, 0]<br/>class = n>, fillcolor="#e58139ff"] ;
2 -> 3 ;
4 [label=<to_messages &le; 0.4786<br/>gini = 0.3289<br/>samples = 53<br/>value = [42, 11]<br/>class = n>, fillcolor="#e58139bc"] ;
2 -> 4 ;
5 [label=<to_messages &le; 0.3789<br/>gini = 0.0768<br/>samples = 25<br/>value = [24, 1]<br/>class = n>, fillcolor="#e58139f4"] ;
4 -> 5 ;
6 [label=<gini = 0.0<br/>samples = 12<br/>value = [12, 0]<br/>class = n>, fillcolor="#e58139ff"] ;
5 -> 6 ;
7 [label=<to_messages &le; 0.3945<br/>gini = 0.142<br/>samples = 13<br/>value = [12, 1]<br/>class = n>, fillcolor="#e58139ea"] ;
5 -> 7 ;
8 [label=<gini = 0.0<br/>samples = 1<br/>value = [0, 1]<br/>class = o>, fillcolor="#399de5ff"] ;
7 -> 8 ;
9 [label=<gini = 0.0<br/>samples = 12<br/>value = [12, 0]<br/>class = n>, fillcolor="#e58139ff"] ;
7 -> 9 ;
10 [label=<salary &le; 0.5127<br/>gini = 0.4592<br/>samples = 28<br/>value = [18, 10]<br/>class = n>, fillcolor="#e5813971"] ;
4 -> 10 ;
11 [label=<salary &le; 0.1571<br/>gini = 0.4032<br/>samples = 25<br/>value = [18, 7]<br/>class = n>, fillcolor="#e581399c"] ;
10 -> 11 ;
12 [label=<bonus &le; 0.0881<br/>gini = 0.4938<br/>samples = 9<br/>value = [4, 5]<br/>class = o>, fillcolor="#399de533"] ;
11 -> 12 ;
13 [label=<gini = 0.4688<br/>samples = 8<br/>value = [3, 5]<br/>class = o>, fillcolor="#399de566"] ;
12 -> 13 ;
14 [label=<gini = 0.0<br/>samples = 1<br/>value = [1, 0]<br/>class = n>, fillcolor="#e58139ff"] ;
12 -> 14 ;
15 [label=<to_messages &le; 0.5185<br/>gini = 0.2188<br/>samples = 16<br/>value = [14, 2]<br/>class = n>, fillcolor="#e58139db"] ;
11 -> 15 ;
16 [label=<gini = 0.5<br/>samples = 2<br/>value = [1, 1]<br/>class = n>, fillcolor="#e5813900"] ;
15 -> 16 ;
17 [label=<gini = 0.1327<br/>samples = 14<br/>value = [13, 1]<br/>class = n>, fillcolor="#e58139eb"] ;
15 -> 17 ;
18 [label=<gini = 0.0<br/>samples = 3<br/>value = [0, 3]<br/>class = o>, fillcolor="#399de5ff"] ;
10 -> 18 ;
19 [label=<gini = 0.0<br/>samples = 5<br/>value = [5, 0]<br/>class = n>, fillcolor="#e58139ff"] ;
1 -> 19 ;
20 [label=<bonus &le; 0.3844<br/>gini = 0.4592<br/>samples = 14<br/>value = [9, 5]<br/>class = n>, fillcolor="#e5813971"] ;
0 -> 20 [labeldistance=2.5, labelangle=-45, headlabel="False"] ;
21 [label=<to_messages &le; 0.4661<br/>gini = 0.4959<br/>samples = 11<br/>value = [6, 5]<br/>class = n>, fillcolor="#e581392a"] ;
20 -> 21 ;
22 [label=<gini = 0.0<br/>samples = 2<br/>value = [2, 0]<br/>class = n>, fillcolor="#e58139ff"] ;
21 -> 22 ;
23 [label=<salary &le; 0.0886<br/>gini = 0.4938<br/>samples = 9<br/>value = [4, 5]<br/>class = o>, fillcolor="#399de533"] ;
21 -> 23 ;
24 [label=<gini = 0.0<br/>samples = 2<br/>value = [2, 0]<br/>class = n>, fillcolor="#e58139ff"] ;
23 -> 24 ;
25 [label=<salary &le; 0.3107<br/>gini = 0.4082<br/>samples = 7<br/>value = [2, 5]<br/>class = o>, fillcolor="#399de599"] ;
23 -> 25 ;
26 [label=<gini = 0.0<br/>samples = 4<br/>value = [0, 4]<br/>class = o>, fillcolor="#399de5ff"] ;
25 -> 26 ;
27 [label=<bonus &le; 0.2214<br/>gini = 0.4444<br/>samples = 3<br/>value = [2, 1]<br/>class = n>, fillcolor="#e581397f"] ;
25 -> 27 ;
28 [label=<gini = 0.0<br/>samples = 1<br/>value = [1, 0]<br/>class = n>, fillcolor="#e58139ff"] ;
27 -> 28 ;
29 [label=<bonus &le; 0.283<br/>gini = 0.5<br/>samples = 2<br/>value = [1, 1]<br/>class = n>, fillcolor="#e5813900"] ;
27 -> 29 ;
30 [label=<gini = 0.0<br/>samples = 1<br/>value = [0, 1]<br/>class = o>, fillcolor="#399de5ff"] ;
29 -> 30 ;
31 [label=<gini = 0.0<br/>samples = 1<br/>value = [1, 0]<br/>class = n>, fillcolor="#e58139ff"] ;
29 -> 31 ;
32 [label=<gini = 0.0<br/>samples = 3<br/>value = [3, 0]<br/>class = n>, fillcolor="#e58139ff"] ;
20 -> 32 ;
}